0.3 101 11
-0.269201
-0.090548
-0.059324
0.154283
0.255916
-1.312528
0.337749
0.047106
0.086011
0.301284
-0.907087
0.205240
-0.280147
0.179137
-0.212499
-1.017900
0.394427
0.297388
0.014765
-0.155696
0.373068
-0.925088
-0.229857
-0.075806
-0.608763
-0.573127
-0.202682
-0.098806
1.703644
-0.068468
-0.085241
-0.238164
-0.771683
0.059528
0.522927
-0.168390
0.365212
-0.604712
-0.006371
0.923885
-0.256071
-0.400174
-0.261583
-0.386169
0.134995
0.517098
0.316938
-1.087365
-0.033402
-1.159718
0.316070
0.159763
0.297877
-0.063008
-0.227834
0.078724
-0.153711
0.959927
1.672527
-0.168302
-0.246024
-1.364338
-0.320076
0.543164
0.038728
-0.440082
0.134431
0.244941
0.493031
-0.537680
0.568566
1.096002
0.158652
-0.257166
0.145295
-0.001684
0.123127
-0.261793
-0.442570
0.181012
-0.916508
0.475659
0.979326
-0.129675
0.475116
-0.555993
-0.455381
0.269336
-0.347098
0.079285
-0.535043
-0.455995
-0.459967
-0.599271
-0.638553
0.115168
0.568192
-0.260945
0.037648
-0.145928
-0.184420
-0.232316
-0.157185
0.127886
2.319849
0.268294
0.268625
0.072038
0.976167
0.075661
-0.393503
-0.170728
-0.702572
-2.105924
0.407397
-0.209157
0.499730
0.428286
0.099491
-0.416520
-0.889384
-0.299739
-0.486533
-0.156711
-0.256546
1.437774
0.593976
0.003052
-0.203895
0.026294
-0.680752
-0.980232
0.124537
-0.182125
-0.502165
-0.449128
-0.236719
-0.104862
-0.299918
0.392079
0.188879
-0.020537
-0.077771
-0.313327
-0.135111
0.531630
0.639196
-0.396697
-0.147198
0.005195
-0.005428
-0.149519
0.436298
-0.806718
0.015211
-0.514341
0.939204
-0.598633
-0.133941
0.750987
-1.236877
0.098874
-0.188223
0.264226
-0.016958
-0.209653
0.243259
0.923234
1.398931
0.013472
0.324977
0.049299
0.175979
-0.000566
-0.553682
0.446256
0.394302
0.776895
0.525700
-0.173702
-0.055094
-0.209019
0.190103
0.956760
-0.615290
-0.461793
-0.931432
0.143859
-1.075652
-0.296515
-0.087184
0.075173
0.769810
-0.412468
-0.283394
-0.823268
0.861931
0.399438
0.508903
-0.074669
-0.926929
-1.139714
-0.011795
0.680628
-1.039974
0.253164
-0.306887
0.273938
0.935636
0.646121
-0.395700
1.419324
-1.060576
0.444315
0.026099
-0.819415
-0.785777
-0.641620
1.149327
0.064053
0.549559
0.294775
0.564752
-1.714032
-1.814929
-0.257516
-0.513149
-0.787081
0.244717
-1.280492
0.788376
0.003874
-0.195786
0.161103
-0.085555
0.509383
-0.191722
0.796268
0.413176
0.112255
-0.265352
-0.606006
-0.053642
-0.359225
0.789729
-1.472400
1.844743
1.632503
-0.601745
-0.889825
-0.023349
0.249666
-0.723514
-0.069076
0.444359
0.413389
0.189668
-0.896953
0.053914
0.402364
0.089259
0.102833
-0.393302
-0.455919
-0.403761
0.106502
0.159606
0.092339
-0.243246
-0.148535
0.186355
-0.382782
-1.219580
-0.385491
-0.141883
0.033961
-0.292164
-0.847251
-0.441304
-0.326616
-0.436207
0.468314
0.414776
-1.328133
-0.023955
-0.967438
0.361088
0.296981
0.232035
-0.686905
-0.387009
0.859728
0.933791
-0.649094
-0.412881
-0.501206
-0.328750
0.351428
0.262435
0.187272
-1.361235
0.887396
-0.513433
0.375552
-0.154047
-0.384494
0.178552
0.236345
0.127822
0.161403
0.971716
0.591434
0.518324
0.437729
-1.041092
-0.699259
-1.252880
-0.602787
0.789033
-0.022038
-0.174459
0.067524
-0.042962
0.441839
0.280862
0.003619
0.104311
0.327979
0.297233
0.294814
0.099930
-0.011104
1.652298
-0.238998
-0.761075
0.281351
-0.891816
-0.557274
-0.305714
-0.051041
-0.924424
0.294523
0.421272
0.744742
-0.153371
-0.814192
-0.068108
0.105894
0.265627
-0.156019
-0.655181
-0.544766
0.550306
-0.137296
-0.042031
0.128948
0.128166
-0.833037
0.704641
0.456721
0.008164
-1.289916
0.530021
-0.372216
-1.051464
-0.104139
0.024138
0.909513
-1.632541
0.748307
-0.386577
-0.750742
0.417326
0.833320
0.047744
-0.336685
0.046071
2.445602
-0.649057
1.332125
0.921752
0.957538
0.550575
-0.289629
-0.239909
0.229928
0.377755
0.472726
-1.313114
0.653025
0.234901
1.399896
-0.732678
-0.383940
0.581172
-0.558191
-0.774813
-0.490336
1.559970
-2.089640
0.687196
-0.534626
1.176641
-0.097350
-1.180869
-0.281043
-0.654867
0.231447
0.003028
-0.336060
0.259320
-1.217715
-1.289806
-1.609480
0.384552
0.441666
-0.067163
0.893983
-0.171915
-0.076132
0.816706
-0.358852
1.843943
0.607361
0.777053
0.346754
-0.245229
-1.199826
-0.352756
0.243875
0.304318
0.258476
0.018161
-0.303255
-0.406092
1.657692
-0.308539
-1.568821
0.996697
0.435763
-0.323705
0.645941
-1.659569
0.816374
0.290384
0.396659
-0.168498
1.244087
-0.245101
0.380203
-0.046829
-0.125728
0.201735
0.163501
1.034415
0.450289
-0.190780
1.994114
0.305658
0.389405
0.524517
-0.302021
0.271968
-0.260786
-0.155190
-1.053691
1.025031
-0.648012
0.806770
-0.466372
-0.509081
0.523925
0.556270
-0.447825
-0.084083
-0.001293
-0.055926
0.795320
-0.822985
0.409371
-1.262809
-0.019358
1.241543
0.869797
-0.218093
-0.617788
1.241705
-1.364266
-0.314669
-0.064221
-0.022051
0.399343
0.137963
0.258205
-0.074977
0.259167
-0.360557
-0.069567
0.194835
-0.184057
-0.860021
1.090402
-0.167047
0.208165
-0.293230
-0.263564
0.237617
-0.004405
-0.657249
1.518630
-0.784477
0.173326
0.703434
-0.069737
0.046136
0.812648
-0.108030
-0.359331
0.420788
0.468988
0.551645
-0.810633
-0.801590
-0.098637
0.057212
-0.195303
1.047132
-0.658240
0.099193
0.006384
-1.071123
0.510412
0.010335
0.457819
0.954620
0.436064
-0.330749
0.085882
-0.194862
-0.289843
0.105176
0.835762
-0.797590
0.967857
1.208574
-0.956590
-0.294092
0.129171
-0.152145
-0.147094
-0.649552
0.221672
-0.357820
-1.364970
-0.194149
0.420625
-0.438159
-0.130277
0.602960
-1.216238
-0.185037
0.523185
-0.545868
-0.376826
-0.864234
1.083687
-1.397802
0.149430
-0.163322
-0.447637
-0.085105
0.724958
0.232888
0.644416
-0.413058
0.554069
-0.421768
-0.043475
0.867109
-0.175473
0.221976
-0.381047
-0.543319
-0.111542
0.087673
0.020586
-1.142466
1.118738
0.023136
1.788024
-0.909013
0.423505
1.192238
0.475028
-0.118149
-0.010729
1.469702
-3.137885
0.155100
-0.654574
0.040843
-1.154359
0.034791
-0.065875
-0.004463
0.039824
-0.271639
-0.714863
0.738117
-1.430508
-1.154304
0.526654
0.042441
0.182739
0.700010
0.544619
0.031622
-0.074231
0.273718
1.312501
-0.503931
-0.537755
-0.140927
0.594470
-0.452536
0.480859
-0.274330
-0.350504
-0.320464
1.287733
-0.153511
0.175065
0.485400
-1.209257
-0.413695
-0.094259
-0.021990
-0.094405
-0.501069
-0.041931
0.021852
2.855520
0.514233
-0.172908
0.461287
0.441726
-0.100267
1.946669
-0.319849
-0.074344
-0.245907
-0.842995
0.342134
-0.234615
1.576547
-0.192794
0.352470
-0.031387
-0.392588
-0.421406
-0.523592
0.079021
2.621733
-2.063599
0.556026
-1.545892
-0.537934
-0.049344
-0.133904
-0.274279
-0.322441
-0.158254
0.405781
-0.521438
-0.165239
-0.844137
-0.834982
-0.199910
-0.224224
-0.054930
-0.498830
-0.805433
-0.603410
0.012853
-0.284953
0.209400
0.194883
-0.323900
-0.881705
0.108438
0.907872
-0.945759
-0.010895
-0.302375
0.429412
0.102284
0.568878
0.685607
0.226597
-1.457340
0.443867
0.093865
0.701415
0.532932
0.317560
0.652975
-0.581845
1.760937
0.201428
0.440078
0.111066
-0.329980
0.375638
0.970291
-0.619545
0.008413
0.467891
-2.091085
-1.093606
-0.516346
-0.888871
-2.066748
-0.433587
0.553711
-0.647016
0.787415
-0.211476
-0.427077
-0.248906
-0.190804
0.169713
-0.782926
-0.708666
0.136143
0.508100
0.230088
0.115860
-0.207404
0.115076
-0.624062
-0.907378
1.305918
-1.216183
-0.158678
0.115599
0.334667
0.469758
0.598057
0.120111
0.018469
0.529072
0.631940
0.250748
0.657918
0.493530
0.201716
-0.243604
0.760459
0.492355
0.177718
-0.879362
0.107783
1.627338
0.261299
-0.517746
-1.427380
1.185279
0.171729
-0.943448
0.881481
0.142512
-0.883008
2.287904
-2.543668
-0.508335
-2.683342
-0.489952
-0.853188
-1.171577
0.251994
-0.587076
-0.031259
0.067550
1.131266
0.621358
-0.987900
-0.314963
-0.734603
-0.565499
-0.286981
-0.135090
-0.291150
0.237321
0.832456
-0.116268
-0.959847
0.742415
-1.117075
-1.425059
-0.147204
-0.162417
0.430716
-0.244515
0.141462
-1.575054
0.077065
0.982478
-0.983981
-0.026335
-0.012654
1.273669
0.502799
0.494892
-0.779099
0.968088
0.345476
1.198603
0.970556
-1.558510
-1.490169
-0.480761
-0.194075
0.096840
-0.394395
-0.773820
0.535415
0.255210
-0.202772
-0.089318
-0.378807
-0.493385
-0.605716
-0.152439
1.023764
1.433597
0.412019
0.453221
0.053525
-0.233757
0.708746
-0.426004
1.519738
0.139308
-0.525719
0.157283
-0.344561
-0.090961
0.202891
1.292792
0.512513
0.246388
0.286733
-0.271372
-0.181335
-0.546796
0.355019
0.991854
0.921932
-0.152002
-0.308337
-0.240393
0.879677
0.447451
-0.054485
0.384099
1.449417
0.084323
-0.062518
-0.221002
-0.075303
-0.395936
0.240375
1.131872
1.349004
-0.274059
0.558571
0.905191
0.089150
0.007937
-0.613288
-0.185665
-0.294428
1.424062
-0.192540
0.466741
-1.998562
0.191292
-0.584764
0.118216
-1.053892
0.502313
-0.544871
-0.516351
-0.152224
-0.724434
0.526803
0.309005
-0.033098
-0.199799
-0.083541
-0.557938
0.844387
-0.399909
0.310243
0.062346
-1.272349
1.090429
-0.691283
0.770140
-0.296642
-0.056028
0.665719
0.409397
0.135766
-0.112273
-1.248325
1.433736
0.024973
-0.398183
0.618581
0.503630
-0.405903
0.860752
0.869416
0.095617
0.391370
-0.612018
-0.260065
0.603738
0.549921
-0.546589
0.376356
0.408042
-0.369748
-0.376573
-0.210526
0.219673
-0.638238
-1.451331
1.034593
0.548819
-0.350908
0.381401
-0.839791
0.226721
0.011176
-0.119098
-0.290782
-0.444936
-0.295754
0.163536
0.901499
-1.080737
0.101821
0.537082
-0.863137
0.028011
0.399216
-0.578767
0.825074
0.909389
-0.309651
0.981472
0.442838
-0.998700
0.039985
-0.550535
0.501755
0.187821
0.397849
0.347768
-0.817056
0.099410
1.023126
-0.650320
-1.168599
0.372307
-0.359108
0.654537
-0.191855
0.479095
-0.469258
1.557132
1.185350
0.310558
0.813766
-0.357637
0.029829
-1.690796
-0.373196
-0.038816
-0.146853
-0.493211
-1.247389
0.312947
0.368109
-0.338709
-0.171845
0.298569
-1.945217
0.791541
-0.270015
-0.730281
-1.736172
-0.105321
1.227707
0.865577
0.082726
0.085422
-0.197973
-1.497900
0.449878
-0.435102
-0.071875
-1.644461
0.104135
0.266425
0.774521
-0.618954
0.949659
-0.064853
-1.699485
-0.177356
-0.716107
0.187378
0.187603
0.913920
0.306314
0.273731
0.111998
-0.119194
-0.893625
-0.123739
-0.643002
-0.251610
0.171938
-0.458728
1.118439
-0.108195
-0.919612
0.658114
-0.348571
-0.100378
-0.783383
-0.324169
-0.085956
-0.445145
-0.030032
1.111666
0.767387
-0.109146
0.740568
0.835285
-0.223982
-1.373669
-0.963281
0.662949
0.059920
-0.976941
0.086137
0.560641
1.470070
0.532584
0.466397
-0.338172
-0.500242
0.535803
-0.149052
-0.504516
-0.337796
-0.552052
0.470325
1.170102
0.536124
-0.052172
0.309474
-0.334506
0.705452
0.467788
0.134156
-0.032413
0.098528
-0.140397
0.724013
-0.086981
-0.377826
0.012730
-0.692773
-0.115326
-0.061228
0.721536
0.395043
-1.285037
-0.834028
0.281660
-0.896300
-1.142904
0.075566
-1.062325
0.583465
0.013688
0.293990
-1.227687
2.101725
-1.080516
1.198298
-1.738536
0.780681
1.153445
-0.396271
-0.722248
-0.043641
-0.048340
0.197383
-0.250347
0.155680
-0.527319
0.357773
-0.040620
-0.101725
-0.337674
0.676103
