0.3 101 26 10
0.250956
0.082852
0.062915
-0.238648
-0.188442
0.506370
1.603457
-1.212179
-0.427241
0.092943
-0.367421
-0.158737
0.283294
-0.876410
-0.792595
-1.913957
0.299293
0.066049
0.814648
0.166182
-0.082112
1.483008
0.305209
0.486050
0.963503
-0.821444
0.303874
0.289677
-0.531356
-0.511506
-0.603043
0.736447
0.536868
-0.829303
-0.218222
-0.904121
0.129176
0.802608
-0.688531
-1.067923
-0.802402
-1.373379
0.023826
0.981295
1.129491
0.462986
-0.231314
0.911569
0.684125
0.390717
0.285764
0.154408
-0.522165
-0.505654
-1.305734
0.501022
0.247579
1.018164
0.973845
-0.860018
-0.321852
-1.101514
-0.652854
-0.104988
-0.415566
-1.375966
-0.779728
0.034810
0.410239
0.372730
-0.269671
-0.553089
-0.159565
-0.190354
0.795259
0.743786
-0.859033
0.405196
1.268035
-1.121555
-1.276224
0.024051
0.865283
0.340423
0.789922
-0.139446
0.078138
0.086408
-0.134158
0.773756
-0.367894
-1.338418
-0.470225
0.204682
0.385220
-0.053900
0.508040
-0.505364
0.710438
-0.240968
-0.893623
-0.392836
-0.038025
0.260525
0.493749
-1.486782
0.172329
0.805301
0.255702
-0.798559
1.008793
-0.123387
-0.558016
0.292033
-0.788127
-0.290968
-1.090547
-1.728599
-0.281975
0.551803
-0.610168
0.798660
-0.761181
0.413309
0.826414
-0.867257
0.348453
0.660819
-0.808675
-0.673450
1.586636
-1.586864
-0.355524
-0.779157
1.333865
0.717687
1.378317
0.722561
0.367958
-0.643458
0.211716
-0.354511
-1.430518
-0.505742
-0.222698
0.915584
-0.590581
-0.582056
0.467791
0.089336
1.006175
-0.054089
0.801727
0.635985
0.278205
-0.658638
0.698697
-0.805239
-1.397781
0.597621
1.138251
-0.559432
-0.136113
-0.115103
-0.464038
-0.533453
0.180222
-0.205048
-0.412501
-0.286773
0.456264
1.119287
-0.377621
0.369126
-0.760276
0.637281
-0.123068
0.046090
-0.330956
0.871920
-0.808113
0.556628
1.476403
-0.564578
-0.247415
-0.861943
-0.001363
-0.674054
0.325058
1.018496
-0.149371
-0.093860
0.374235
0.542346
-0.926729
-0.816532
-0.202845
-0.092638
0.641176
-0.020431
-0.296332
0.804122
0.964157
-1.337381
1.075630
-0.550971
-0.827291
-0.354446
1.039774
-1.038168
-1.281683
-0.524337
0.020789
0.617966
-0.303473
-0.732177
-0.785257
1.176427
-0.037133
-0.389860
-0.845105
-1.349896
-0.155996
0.250596
0.655938
1.117244
-0.017007
1.062826
-0.420296
-0.493206
0.520096
-0.467573
-0.634635
0.205719
0.535970
-0.244571
-0.724242
-1.360993
-0.249912
0.886563
-0.274672
-1.083193
0.164925
0.362267
-0.057610
0.107797
0.911858
-0.878290
-0.720847
-0.265786
0.816926
-0.438192
-0.350342
0.015587
0.576997
-0.149738
0.915124
0.438156
-0.802489
-0.102246
0.506927
0.560272
-0.325963
-0.488402
1.364192
0.489060
-1.728577
0.668045
1.056828
0.619080
-0.880488
0.053485
1.004589
0.463113
-0.643415
1.286157
-0.821329
-0.358121
0.232990
1.577264
-0.501168
-1.353682
-0.619722
1.068730
0.071306
0.561015
-0.880234
-0.056915
0.651131
-0.071003
0.900017
0.190016
0.483333
-0.211289
-0.792685
0.487520
-0.230090
-0.517181
0.543766
-0.263172
0.265903
0.301775
-0.271214
-0.138835
-0.339660
0.334127
-0.260136
-1.597278
0.040307
1.142372
0.022826
-0.644574
0.941649
0.120990
0.336140
-0.099205
0.816224
0.604120
-0.857612
-0.316606
-0.059756
-0.260112
-0.338089
-0.640325
-0.259430
0.371719
-0.341815
0.030372
-0.026678
-0.219963
0.515153
-0.962893
0.020436
-0.686173
0.301642
1.120121
0.092295
-0.669183
-0.900935
0.469923
-0.348079
-0.728821
-1.398366
-0.039742
0.008195
-0.798315
0.078627
0.382931
-0.869906
1.108873
-1.122882
0.499358
-0.792974
0.810596
0.087075
0.197398
-0.256944
-1.302318
-0.954967
-0.247821
-0.096797
-0.217752
0.350797
-0.285945
0.733987
-0.003491
0.369558
-0.228739
-1.310459
-0.643789
-0.748208
-0.665084
-0.052403
0.711585
-0.222388
0.469332
-0.140818
0.785418
-0.552493
-0.485407
-0.466174
-0.687702
0.285976
-0.860527
-1.134315
-0.769495
0.103305
0.034322
0.541851
0.678707
0.204385
-0.902566
0.760546
0.008317
-1.145258
0.879242
0.428792
-0.626001
0.518487
-0.359547
0.472553
0.342518
-0.746424
0.316377
0.369504
1.068079
0.511261
-0.176384
1.025327
-1.329262
0.027177
-0.368642
-1.029574
-1.087587
-0.089079
0.127169
-0.662266
0.520555
0.309157
0.492583
0.464791
-0.607829
0.403841
-0.211179
0.129206
0.209671
0.364931
-0.684459
-0.508150
0.759784
-0.011400
-0.295371
-0.410216
-0.011747
-0.146986
-0.658674
0.230512
0.577960
-1.028543
-0.350701
-0.366157
-0.067730
-0.353258
-0.119443
0.565445
-0.133723
-0.393114
0.073684
-0.468489
-0.613389
0.062526
-0.333082
0.517644
-0.575794
-0.578852
0.721182
-0.885331
0.896046
0.203132
0.341580
0.753030
-0.040581
0.406885
-0.573864
-0.283372
0.982700
0.011347
0.672071
-0.115119
0.895200
-0.038633
-0.063674
-0.363838
-0.303509
-0.709475
-0.255562
-0.040479
-0.593451
-0.857983
0.612892
-0.268004
-0.555308
0.315745
0.749242
0.210087
-0.620220
0.643007
0.068419
1.698455
-0.134184
-0.299818
0.315009
-0.277562
-0.178358
0.138270
-0.481056
0.728071
1.286212
0.976473
-0.655241
-0.194529
-0.135577
0.665053
-1.621333
0.135154
0.836163
-1.378809
-0.333764
0.345542
-0.069764
0.856567
-0.428223
0.428835
0.360582
1.307363
0.565089
-0.699755
0.890992
1.239347
-0.030923
-0.875456
-0.266947
1.567915
-0.856396
0.503435
0.521627
-1.463044
1.791766
1.146050
-0.324073
-0.520114
-0.350624
0.093751
0.474535
0.105726
0.497332
0.507731
-1.084009
-1.390334
-0.266565
-1.058052
-1.139323
-0.951744
0.413304
-0.304887
-0.613610
-0.670740
0.935814
0.095100
-1.122571
-0.602344
-0.263872
-0.340490
-0.900220
-0.182615
0.849379
-0.081371
-0.210240
0.725143
0.948743
0.659424
0.753929
-0.193174
-1.054576
-0.426403
0.691481
-1.091969
0.168422
0.293650
0.478852
0.588284
-0.648439
-0.837412
0.870810
1.210518
0.558191
0.566535
0.167708
0.762922
-0.659756
-0.822386
0.128730
-0.584398
0.504968
0.603754
-0.153323
0.711604
-0.397954
0.564059
-0.805631
-0.135743
0.719899
-0.914252
-0.734823
0.676050
-0.177053
-0.495743
-0.715105
0.240897
-0.073751
0.868298
-0.755177
0.158292
-0.478545
-0.815641
-0.183630
-0.264283
0.774587
-0.180125
-0.419256
0.075893
0.084925
-0.861176
0.697718
0.213971
0.815058
0.995116
-1.405327
0.458685
0.117465
0.261573
0.490547
0.501266
0.986031
-1.191942
-0.992915
-0.415975
0.615999
0.214424
0.251670
-0.048042
-0.707893
0.529655
-0.695165
0.398375
0.188447
-0.509515
0.600882
0.522382
0.901076
0.529382
-0.565288
0.247787
-0.633485
-0.300918
0.594412
0.489507
-0.950356
-0.967184
-0.851350
-0.448142
-0.362286
0.177863
-0.062935
-0.369295
-0.191914
0.188527
0.960751
-0.213710
-0.321091
-0.210477
1.025167
-0.627747
-0.850639
-0.229763
0.477425
1.139402
-0.815378
0.602513
-0.893949
0.364618
-0.001803
-0.851255
-1.041341
0.240024
0.655911
0.309886
-0.810165
0.648149
1.237153
0.744333
0.186352
0.561378
0.239288
1.566856
-0.490095
-0.559424
0.934307
-0.544527
-0.452860
-0.155090
0.088714
-0.717853
-0.817973
0.817896
-0.883232
0.208431
1.147264
0.877032
-0.211747
0.001961
-0.155441
0.030671
0.105933
-0.368420
0.016740
0.794433
0.636853
-1.219387
-0.391402
0.103317
-0.347051
0.238135
-0.696886
0.398174
0.612312
-0.546599
0.796731
0.641557
-0.213677
0.430897
-1.057333
-0.100163
-0.322514
-0.272698
0.680995
0.604201
-0.450319
0.391457
-0.305713
-0.664448
0.257199
0.572291
0.837368
-0.712739
0.712951
-0.252328
-1.361833
-0.909311
0.115238
-0.642438
0.514053
0.966483
-0.199031
-0.389399
-0.687335
0.915276
0.813613
0.555773
-0.326788
-0.377743
1.389911
0.486234
0.041555
0.028120
0.792867
0.452808
-0.863643
-0.135118
0.434129
-0.365883
0.367499
1.191049
-1.555217
0.378663
0.580423
-0.505608
0.990042
-0.234811
0.058053
-0.605495
-0.465848
1.106086
0.273305
1.288315
-0.251934
-0.749405
0.127643
0.826422
-0.666549
0.874751
1.175861
0.100268
-0.731348
0.417074
-0.880574
-0.596048
-0.477804
-0.500011
0.614924
0.174747
0.254288
0.003487
1.105310
-0.047178
0.822861
0.237113
-0.046977
-1.347228
0.193456
-1.293631
-0.254862
-0.053503
0.497831
0.178891
0.323516
-0.825173
-0.455664
0.495800
-0.400463
-0.394984
0.053704
-0.155479
0.730079
-0.440752
0.109664
-0.662806
0.389941
0.079823
0.677937
0.277111
0.714055
0.808469
-0.411245
-0.592855
0.492534
-0.894019
-0.395722
0.858635
-0.660658
0.121258
-0.959971
0.469917
0.945239
0.829457
-0.700702
0.547483
0.076980
0.770691
-0.497202
0.200297
0.285793
0.525524
-0.080726
0.393071
-0.607116
1.002832
-0.010555
0.100456
0.809019
-1.165711
-0.418134
-1.543175
-0.481018
-0.483771
0.296626
-0.135092
-0.751289
0.933961
0.533753
0.739105
-0.116498
-0.074541
0.411681
0.189469
0.877732
0.402179
0.204511
-0.082968
0.049623
0.314166
0.512976
0.568937
0.597084
0.495712
-0.758243
0.321925
0.436980
-0.704432
-0.262189
0.552263
-1.371733
-0.663392
0.870956
-0.512713
-0.761367
0.758904
-0.315310
0.193299
-0.392831
0.772322
0.457155
-0.368838
0.267820
0.675892
-0.116457
-1.033719
0.111515
0.928045
-0.285868
0.295704
0.263756
-0.332065
-1.247526
-0.140021
0.774426
0.479461
0.535239
0.114429
0.226673
-0.604857
0.104461
-0.598318
0.009343
-0.419059
0.172654
-0.808713
0.759769
0.510686
0.411593
0.683604
0.697997
0.426432
0.038626
0.254657
-0.479342
0.905094
0.595964
0.058639
-1.170125
-0.396170
-0.448861
-0.520275
0.549492
0.272339
0.884989
-0.510281
0.435297
0.422663
0.141659
-0.268978
0.884667
-0.985185
-0.126178
1.239537
-1.256713
0.544080
-0.747999
-0.518670
0.034416
-0.746226
-0.140789
0.629876
0.156624
0.203170
0.598442
-0.179630
-0.007064
0.244403
-0.525063
-0.658137
-0.133384
-0.358941
0.004300
0.745444
0.273965
1.524074
0.096031
-0.767840
0.803998
-0.235436
-0.615154
0.763656
0.005365
0.533327
-0.470216
-0.780039
0.439124
-1.214948
-0.414124
0.533065
-0.671247
-0.075172
0.081769
0.398578
0.125277
-0.319966
-0.264098
0.186128
-0.153815
-0.023810
0.247622
0.759237
-0.114626
-0.828218
0.435862
-0.014066
-0.599953
-0.830627
-0.396046
0.112489
0.377946
-0.238646
0.964451
-0.121735
0.281110
0.588074
-0.040848
1.011759
0.375551
0.558776
1.258432
0.227437
-0.452786
-0.588282
-0.687744
1.364343
-0.648204
0.088436
-0.388772
-1.060619
0.656860
1.112197
-1.857847
-0.028294
-0.171410
-0.212701
-0.986662
1.042103
-0.817022
0.731871
-0.454308
0.912219
0.617631
1.059523
1.097868
0.319319
0.416495
0.147854
0.124486
-0.060056
-0.263325
0.239410
-0.254779
-0.877450
-1.245540
0.375201
-0.379330
-0.881887
1.067517
-0.964258
0.655350
0.097767
0.786968
-0.080368
0.586866
1.045199
-0.087034
-0.203798
0.319638
0.303813
-0.426431
0.679644
0.448516
-0.077909
0.365762
-0.071040
0.251382
0.901276
-1.057868
1.306953
-0.165129
-0.332612
-0.207622
-0.653276
0.317875
-0.469495
1.211733
0.129382
-0.163386
-0.468278
-0.474714
0.290888
0.019370
-0.507470
0.852047
-1.160668
0.262715
0.599259
-0.706190
-0.603965
-0.555956
0.096569
0.889847
1.004335
0.490837
-0.004478
0.621430
0.226347
0.241136
1.066764
0.116596
-0.197997
0.431599
-0.015734
-0.656482
-0.384370
-1.131373
-0.103085
-0.811535
-0.345923
-0.381878
-0.686702
0.741513
0.459477
0.124739
-0.581413
-0.654562
0.261996
0.627315
0.532796
0.484423
-0.034058
0.633781
-0.521034
0.147709
-0.669801
-0.513525
0.589550
0.510137
0.255699
-0.868372
0.127523
-0.630951
1.371283
-0.127739
-0.442024
0.182398
0.091819
0.105974
-0.032624
-1.057360
-0.204922
0.225649
-0.903321
0.607381
0.462055
-0.280282
-0.001714
0.658536
0.010667
-0.201379
0.295988
0.729431
-0.447259
0.780138
-1.075923
0.147994
-0.773333
-1.046251
0.104416
0.568916
-0.042706
-0.198063
-0.700578
0.608051
-0.401929
-0.757504
0.111860
-0.187401
0.337728
0.081723
0.541319
-0.189155
0.520129
1.472750
0.332460
-0.964685
0.191645
-0.239056
0.220029
-0.270022
0.056135
0.514788
0.774295
-0.518589
0.575506
-0.946703
-0.693489
0.820083
-0.135881
-0.312465
-0.353345
0.178396
0.589663
-0.571127
0.219387
-0.163129
-0.353349
-0.885954
-0.387662
0.240309
-0.879033
0.010255
0.669460
0.342969
-0.492400
-0.787443
0.076606
0.096588
-0.368826
0.111498
-0.106910
-0.542265
0.194556
-0.241027
-0.534776
0.476394
-0.301516
0.615646
0.114507
-0.798262
-0.349729
0.468986
-0.070687
0.804862
-0.261439
0.852131
-0.295043
0.118585
0.297407
-0.171187
-0.128211
-0.819810
0.599406
-0.344590
0.194021
-0.451828
1.165903
0.016495
0.588852
1.154448
0.747783
0.809082
1.200123
0.105967
-0.349880
0.375668
-0.945482
0.239291
0.160212
1.565678
0.291800
1.009020
-0.461783
-0.259574
0.582810
-0.805980
0.034467
1.097964
1.234287
0.431710
-0.772377
-0.376178
-0.223631
0.868223
0.674972
0.621025
-0.502665
1.016790
-0.719275
0.099069
-0.397228
-0.796073
-0.314529
0.137774
-0.353538
-0.218874
-0.273917
0.765754
0.576048
-0.593020
1.054032
-0.605308
-0.312272
1.064662
0.294789
1.047195
0.303690
0.548679
-0.297105
0.115488
-0.903370
-0.970727
1.173911
0.750984
-0.894186
0.967396
0.248040
0.189508
-0.486347
-0.372687
0.385666
-0.896925
-0.303546
-0.545969
-0.433677
-0.440663
0.071894
-0.248891
-0.633780
0.549232
0.321431
1.649255
-0.757196
0.382452
1.078050
-0.114118
-1.474425
0.995820
0.787262
0.952049
0.126840
-0.616402
0.944134
0.145295
-0.643070
0.936512
0.148219
-0.454409
0.907269
0.363878
-0.195418
-0.364587
0.556482
0.261197
0.967793
0.048427
-0.004263
0.497900
0.220907
-0.412552
0.899901
-0.780251
-0.238923
1.048626
-0.754510
0.894049
-0.909112
0.780756
0.401510
0.978874
-0.344589
1.083763
0.961760
-0.780550
0.052509
0.410602
0.534911
0.419006
0.568970
0.046165
0.303070
0.724895
0.166948
-0.010337
-0.998080
0.291419
0.520687
0.788096
0.557121
-0.165628
-0.597264
-0.329131
0.961246
-0.195655
-0.884836
-0.234728
0.530438
0.536508
0.091853
0.702657
1.235479
0.995648
0.283317
-0.581362
0.292883
-0.855313
-0.787776
-0.652469
0.577412
-0.060720
0.561411
-0.496261
0.107210
0.827687
0.753081
0.550439
-0.465445
1.085270
0.665938
-0.125422
0.529471
0.693605
-0.758674
0.301123
0.335804
0.995650
0.144232
-0.425470
0.225484
0.754273
-0.299283
-1.064916
-0.431975
-0.612802
-0.609077
-0.734545
-0.325354
-1.062169
0.104054
-0.409404
-0.106893
0.100585
-0.068998
-0.145792
0.170792
-0.122124
0.586523
0.160035
-0.586226
0.266577
0.439060
0.457911
-0.365215
0.220056
-0.712639
0.848284
-0.481983
-0.160336
-0.547483
0.481554
-0.943009
-0.200254
-0.933249
0.162761
0.785372
0.734969
0.745470
0.846867
-0.894154
0.618858
-0.501189
-0.444760
-0.509412
-0.415396
0.299837
0.239772
-0.109379
-0.156262
0.720338
0.356858
-0.273651
-0.691601
0.154845
0.479630
-0.680242
0.905802
0.084262
0.515211
0.294077
-1.553345
0.145271
-0.321689
-0.297289
0.908874
-0.820747
0.124885
-0.576750
-0.363415
0.686756
-0.435180
0.704895
0.561300
-0.369887
0.552541
-0.502363
0.099197
-0.209414
0.071078
-0.512362
0.052581
0.004607
0.558164
-0.189825
-0.830983
-0.987657
-0.578097
0.284609
-0.048424
-0.872195
-0.073958
-0.844716
0.495144
0.191387
0.343475
0.504591
0.511822
-0.325192
0.424055
-0.495609
0.744278
0.085557
1.120005
-0.632745
-0.516728
-0.908764
0.976046
0.646189
-0.547577
1.280627
-0.207247
-0.348717
-0.780794
0.235439
0.674973
0.060493
0.556530
0.301950
1.088466
0.501309
-0.532512
-0.831801
-0.130576
0.228991
0.767235
0.596841
-0.382103
-0.891262
-0.500613
-0.696250
-1.057112
0.952807
-0.079508
0.191077
0.204876
1.155701
0.453244
-0.071738
0.274830
0.950346
0.055753
-0.236846
0.407437
0.196145
-0.398691
0.030263
0.382591
0.401442
-0.027583
-0.153326
-0.709105
0.053308
-0.676822
0.317459
-2.196868
1.285992
1.875014
0.414674
0.494025
-0.638958
0.975282
-0.710079
0.135517
0.675402
-1.031582
0.806492
-0.921212
-1.397676
0.645142
-1.540408
0.359280
-0.088360
-0.130401
1.530018
0.294466
-1.033196
-0.267659
0.965353
0.916704
0.988508
-0.857871
0.283490
0.964625
-0.648340
0.696856
-0.828718
-0.425957
-0.356101
-0.198843
-0.585903
-0.829089
-0.090758
-0.722637
-0.489213
-0.355261
-1.291898
0.796951
-0.271162
-0.726903
0.365147
-0.339579
0.601477
-1.032895
-0.590340
-0.574849
0.601354
0.023500
1.232109
0.991009
-0.840802
0.225266
0.059290
0.276238
0.828462
0.757636
-0.142925
0.742756
-0.527743
0.488396
-1.035689
0.642774
-0.725951
0.973542
0.044805
0.944427
0.027479
0.501656
0.176221
0.575874
-0.367384
0.074471
0.920553
-0.227223
-0.703703
1.078943
-0.507517
0.664468
0.873613
0.673653
-0.405932
0.364606
-0.137109
0.729786
0.004497
-0.077495
-0.373356
-0.429482
-0.314918
0.922240
0.662229
-0.405530
0.837601
-0.378782
-0.148957
-0.390554
0.492547
0.326127
-0.421482
0.122027
0.792918
0.322240
-0.409029
0.964571
-0.831432
0.105959
0.613374
0.135280
0.225361
-0.029412
-0.257524
-0.217786
0.706256
0.688545
-0.127425
1.172696
-0.796543
1.105771
0.411176
0.569529
0.057050
0.477112
0.735944
-0.182497
-0.094090
-0.950825
0.080319
0.871327
0.444652
0.539857
0.169885
0.833540
0.721942
0.234391
0.253291
0.596107
0.277769
-0.193500
0.870872
-0.515380
-0.638542
1.033414
0.670814
0.584766
1.299051
-0.371438
1.187070
0.677618
0.204077
-0.702738
-0.346826
0.303006
0.497930
0.230494
-0.518058
-0.064218
0.852273
0.745079
0.759112
0.486192
-0.981732
0.050197
0.036244
-0.110518
0.619422
0.376135
-0.546344
0.173230
-0.129268
-0.825753
1.377169
0.736802
0.010814
-0.809647
-0.409380
1.050713
0.487262
0.130095
0.933463
0.027306
-0.986481
0.056581
-0.633272
-0.291774
0.230478
-0.759489
0.476838
-0.894592
0.828081
0.106534
0.128843
-0.116180
0.292428
1.096606
-0.302365
0.342346
-0.528057
-0.711141
-0.178999
0.388649
-0.018138
0.955063
-0.709213
0.447005
0.447606
-0.159858
0.506944
-0.063298
-1.002913
-0.457980
1.005755
0.612600
-0.543462
-0.888994
0.394219
0.407909
-0.943299
0.057258
-0.144171
0.652694
1.216156
0.074413
0.523781
0.598722
0.139286
-0.969603
0.687663
-0.198596
-1.662084
-0.231535
-0.803224
-0.686541
0.326114
-0.423903
-0.365681
0.025968
-0.763354
0.185426
-0.032611
-0.805563
0.692899
0.513697
-1.041766
1.105946
0.216736
-0.370320
0.482970
-0.308239
-0.247852
-0.433154
0.238226
-0.640163
0.198077
0.368105
0.526636
-0.208496
0.241072
1.378930
-0.140309
-1.076616
-0.607011
-0.858385
0.383064
1.152537
0.242372
0.409756
0.899785
0.480205
-1.621503
0.574057
-0.256990
0.278007
-0.713389
-1.391963
1.953024
-0.462525
-1.133622
-0.742658
-0.394523
0.927345
-0.237687
-0.907108
0.714110
0.684221
0.250313
-0.036823
-0.265795
-1.335463
0.169811
0.442788
0.068808
-0.541331
-0.477471
0.739756
0.203843
0.336964
-0.279436
0.494572
0.891522
0.502025
-0.189252
0.928776
-0.818305
-0.276086
-1.311533
0.680605
0.551840
-0.290486
-0.180933
0.810642
0.043417
0.618472
0.906686
-0.065298
0.495664
0.296358
0.372935
0.803618
-1.216706
-0.417133
0.112943
0.905821
-0.634953
0.018901
-0.882310
0.678108
1.323526
-0.424088
0.249244
0.426704
0.416292
1.048967
0.588164
-0.271144
1.093035
1.246701
-0.784738
-0.182899
0.562184
-0.640252
-0.369767
0.356558
0.689695
0.702003
0.081236
-0.284796
0.942329
0.791389
0.379989
0.577307
0.492189
1.383002
-0.643566
0.113682
-0.211953
-0.854128
0.849945
0.620522
1.041043
0.187228
1.020504
0.216401
0.335221
0.681098
0.269437
0.069620
-0.242510
0.225042
-0.021170
0.617639
-0.553437
0.568871
0.554754
-0.462731
-0.820741
-0.540942
-0.072915
-0.346606
0.869854
0.564583
0.050178
0.615689
-0.212290
0.233368
-0.552104
0.940607
0.682282
-0.704909
-0.420919
-0.231807
1.059611
0.625663
0.456841
-0.310322
-0.622094
-1.002857
0.842843
0.353727
0.056057
0.322791
0.130659
1.281719
0.042724
-0.197722
-0.136241
0.670217
0.286498
0.100584
0.341683
0.134181
1.024439
-0.593966
0.975809
0.035010
-0.874466
1.051958
-0.216413
-0.509974
-0.653809
0.738845
-0.139348
0.084314
-0.262475
0.375438
-0.589635
-0.362070
0.715370
-0.292411
-0.486732
0.684221
0.417737
-0.354755
-0.467068
0.580928
0.454842
-0.733778
1.142165
-0.230316
0.020708
0.804326
-0.061791
-0.223648
0.926775
0.881761
0.593838
-0.579619
-0.215096
0.395516
0.114485
0.897605
0.535565
0.244009
-0.878014
0.867274
0.097744
0.553139
1.331641
-0.163966
-0.308513
0.146870
-0.348985
-0.524848
-1.510892
-0.130290
-0.719691
0.445106
0.883677
0.070232
0.899459
-0.707585
0.128644
-0.366327
-0.503146
-0.156677
0.171922
0.501949
-0.344521
0.761907
-0.750494
0.611466
-0.061190
-0.571300
0.340634
0.279723
0.321617
0.903586
-0.065415
0.567890
-0.891367
-1.479282
-0.079845
0.495393
-0.983250
1.110577
0.530924
-0.220744
-0.030452
-0.516173
0.875994
-0.060776
1.857652
0.421006
-0.214502
-0.402258
-1.100957
0.193723
1.464084
-1.333535
-1.326825
0.088644
-1.272574
0.585356
-0.046753
1.496279
1.039326
-0.758922
0.546113
0.395863
-0.457045
-1.348128
-0.542086
0.039590
0.509172
-0.927972
0.265248
-0.864153
-1.047281
-0.609292
0.466303
0.452962
0.262132
1.001130
0.155796
-0.117282
0.755765
0.791208
-0.777793
0.346163
-0.636330
0.134575
0.095625
-0.262035
1.136714
0.741689
-0.227173
-0.391912
0.682534
-1.242832
0.935825
-0.545803
0.452449
0.652115
0.315795
0.382406
-0.386709
0.343985
0.669691
1.003037
-0.186787
-0.193679
0.536770
-0.238899
0.369860
0.685610
0.031502
-0.240025
1.028380
0.063183
-0.573801
1.351201
0.406627
-0.358937
0.069036
-0.532523
-0.274374
-0.144435
-0.844221
-0.203298
0.342236
0.734740
-0.389576
0.322890
-0.202862
0.987442
0.222907
-0.177466
0.822693
0.335785
-0.670697
-0.468434
0.641552
-0.594021
-0.212102
0.705154
-0.727282
-0.220445
0.037612
0.209498
-0.692999
-0.330618
0.582295
-0.374178
-0.890753
0.037229
-0.581305
-0.659817
-0.496745
0.914211
0.361542
1.071224
-0.585541
1.001797
0.997197
-0.507151
0.462581
-0.938537
-0.263939
0.161665
-0.291317
-0.252533
0.827325
0.104495
-0.438604
-0.419106
-0.625976
-0.211321
0.326664
0.635704
-0.254994
0.672992
-0.589770
0.771974
1.333316
-0.029625
0.645091
0.072870
-0.579106
0.768686
-0.511544
-0.494835
0.819807
0.105481
-0.774016
-0.304290
-0.060507
1.183923
-0.410138
0.664903
-0.404169
0.710349
-0.376929
-0.027814
-0.269200
0.091108
0.828330
-0.410454
-0.395891
0.457292
-0.455861
0.070412
0.001481
-0.839342
-0.500977
0.185299
0.639439
-0.024485
0.591589
-0.261998
0.385204
-0.368167
-0.089939
0.503737
0.618862
-0.514487
-0.301166
-0.923391
-0.568832
-0.175650
0.149530
-0.172154
-0.980695
-0.405904
-0.626676
0.263613
0.062001
-0.593304
0.829980
0.649226
-0.856383
-0.296188
1.058805
-0.642672
0.349806
-0.075323
0.494824
0.786209
-0.766315
-0.506947
0.511048
0.676632
0.039417
0.934262
0.108239
-0.238377
-0.333611
0.324560
0.618750
-0.302193
-0.072140
0.116441
-0.273246
0.143077
-0.200941
0.303270
-0.395109
-0.473613
0.364862
-0.544640
0.152550
-0.384942
0.440223
-0.224558
-0.331818
-0.142069
-0.284838
-0.287162
-0.832213
0.297161
0.576622
0.149941
0.905631
-0.215764
0.852573
0.878336
0.295236
-0.100156
0.411944
-0.516307
0.835373
-0.578523
-0.110999
-0.039338
0.298360
0.579960
-0.571813
-0.468645
-0.494199
1.012378
-0.561940
-0.173765
-0.640361
0.167501
0.402202
0.388526
-0.345619
1.237355
0.805437
-0.077662
-0.679630
-1.501918
1.437560
0.353184
-0.919096
-0.011380
-0.384972
1.059027
1.317123
-0.664087
0.078333
0.768597
-1.176925
0.366205
0.327579
-0.157419
-0.718986
0.039064
0.944181
-0.839311
0.129966
0.186728
0.205923
0.106229
0.549048
-0.290708
0.089456
0.849967
-0.033950
-0.449576
0.666358
0.646658
-0.556533
-0.960516
0.072476
-0.982085
-0.446835
-0.287711
-1.549478
-0.808814
-0.688773
-0.177942
0.000797
0.083322
-0.056345
-0.958946
0.497598
-0.054369
-0.386889
-0.008036
0.321143
0.462964
-0.625724
-0.260741
-0.772623
-0.574210
0.649742
-0.982839
0.426271
-0.602575
-0.141516
-0.156008
-0.147302
-0.687308
-0.768648
-0.458001
-0.296978
-0.431869
-1.352969
-0.920746
1.090972
0.435822
1.018696
-0.733827
-0.570441
-0.062667
0.673855
0.619804
-0.837518
1.076649
-0.830723
-0.689594
0.020099
-0.457590
-0.264864
-0.774435
-1.279836
-1.605593
-0.156743
-0.115879
-1.047468
-0.193853
-0.263270
1.143510
-0.644656
-0.080690
0.585613
-0.496719
1.057072
-0.073874
-0.679458
-0.141740
0.612478
0.388339
0.343497
0.795470
0.200800
-0.027297
0.079548
0.534405
0.484710
0.444872
-0.842568
-0.906526
0.428658
-0.703752
-1.386239
-1.252974
-0.713051
1.049228
-0.004693
0.649743
0.503927
0.397481
-0.699868
0.567947
0.506922
0.597101
-0.578236
0.261664
-0.603035
-0.972954
-0.560589
-1.106748
0.239444
-0.846109
0.590312
-0.007306
-0.208027
-0.008803
-1.199387
-0.623421
-1.445741
-0.501086
-0.220882
-0.385173
-0.549453
0.960684
0.415786
-0.373065
-0.035109
0.821690
0.731591
-0.161246
-0.185683
0.112682
0.154578
-0.080991
-0.757354
-0.455175
-0.691472
0.619368
0.353499
-0.956474
0.431176
-1.173178
0.407659
-0.137985
-0.879391
-1.053005
0.928431
-0.647489
0.045163
0.579889
-0.076676
-0.368546
-0.016826
-0.585201
-0.767947
-0.194129
0.723384
0.066207
-0.826984
0.000411
-0.795273
-1.012891
-0.493212
-0.335526
-0.467606
-0.513748
-0.724030
-0.388226
-0.218355
0.467250
0.132907
-0.016144
-0.432969
0.773112
-0.998884
0.769837
0.101500
-0.148123
-0.358924
0.075509
-0.626249
0.630067
-0.029308
0.194877
0.104080
-0.117060
-0.385071
-0.820337
0.153457
-0.404948
-0.007239
0.743748
0.015050
-0.293865
0.287781
-0.757974
-0.152158
-0.993487
-0.270937
0.577916
-0.215632
-0.504998
0.639578
0.659499
0.008626
1.055112
-0.134941
0.848149
0.106960
0.345924
0.558417
-0.341202
-0.412544
-0.981029
0.316602
0.318014
0.183228
0.329985
-0.871073
-0.690821
-0.634969
-0.506847
-0.070482
-0.532044
0.790544
0.076115
-0.227878
0.851666
-0.031441
1.023809
0.532936
0.182804
-1.012081
-0.243476
0.998030
0.210198
-1.006070
1.567375
-0.106931
-0.845240
1.007020
-0.508567
-0.734402
0.190968
0.030584
0.119279
1.052586
-0.019208
-1.004429
0.422314
0.086303
-1.250184
-0.714480
0.303524
0.569654
0.178249
-0.178146
0.102690
0.416304
0.747567
-0.569197
0.725819
-0.254499
-0.293946
0.525743
-0.732183
1.015996
0.740416
0.238960
-0.652963
0.185496
-0.198830
1.009452
0.848148
-1.613158
-0.541373
-1.850539
-4.055006
-0.985723
0.017728
-0.609819
4.806065
-1.170885
1.994867
-0.257684
0.144974
0.137627
-1.326665
4.838718
-1.399737
-0.571045
0.105110
-1.843734
-1.776595
-0.538087
1.096089
-2.821601
-1.202683
1.344594
-1.874427
-0.298029
-1.611346
0.190081
0.323561
-1.959810
-0.941025
0.858896
2.372147
-0.852833
-1.744228
0.413644
-1.206331
-0.039948
-1.845040
-1.748449
-1.654860
2.273438
-2.446034
-0.798453
-0.820704
-0.908174
0.238383
3.261041
1.806759
-4.003728
0.729477
0.244645
0.177769
0.025383
1.464116
-4.637141
-0.915511
0.068225
-0.069311
0.868111
-0.279528
0.391352
-1.020614
-3.783976
0.921014
-0.223308
1.800735
-0.117394
-4.959097
-0.853532
-0.264988
1.358272
-2.997933
-1.055395
-2.567724
2.212766
-1.944917
2.742438
0.318416
0.571146
-0.175336
-0.286128
0.979527
-0.628356
-0.938965
-2.652874
-1.645805
1.404498
0.338080
-3.058230
0.621380
-1.222929
-3.276315
-0.137819
3.214665
2.578297
-1.297562
-3.004897
-1.198615
-0.245828
0.860107
0.520283
0.505015
0.858979
-0.384832
0.362827
1.114626
0.126997
-0.909760
-0.273004
0.497592
-2.374344
-0.826808
-1.329553
-0.054829
-2.439727
-1.220381
-0.497034
-0.428807
-0.893226
-0.141357
0.887286
-0.543820
2.466704
1.106294
1.322931
-1.835770
-0.250005
-1.544330
0.535698
2.237235
-1.200992
-1.249609
0.259427
-1.386262
1.512859
-0.760424
-3.335325
-1.308859
0.488334
-0.739490
0.418550
-0.431176
-0.281787
-0.409603
0.006973
-0.299988
-0.804097
0.446359
0.718205
0.558479
1.895097
-1.617958
-1.847258
-0.897565
-0.301230
-3.477872
-3.546927
2.343408
1.046784
-1.025761
-5.320848
1.113085
-0.239860
0.219926
0.767078
-1.261993
0.625683
0.610237
0.673744
0.615245
-0.374020
-0.570975
0.806669
-0.625660
-0.481980
2.364990
0.043009
0.395761
-3.090364
1.600161
0.695293
3.161812
-0.718917
-2.747817
-2.127173
0.749262
-1.997832
-0.718989
0.218403
-4.374871
1.001877
-2.117943
-0.485543
1.199283
-0.577724
-1.038011
-0.797856
-0.609263
2.949003
-2.390143
0.786131
2.864174
-0.729527
-2.429999
-2.566201
0.388268
-3.910508
-0.032187
-2.569856
-1.656389
0.033894
1.076130
1.437224
-2.158712
1.711043
1.396122
2.075077
-2.594006
-1.310241
-2.845382
-2.254556
0.343845
-1.254176
0.220267
0.376673
-0.557391
-1.119400
1.106124
-0.740260
-1.970977
1.301010
-2.722285
1.420665
-0.906749
-1.594166
2.184268
-3.261261
1.687591
1.758054
0.174625
0.014729
-2.371783
0.064655
-3.674730
0.802968
1.064787
0.896197
-2.468750
-0.448649
0.153012
-2.010903
-0.815427
-0.700134
-0.195386
-1.585116
-2.034408
-1.829343
-1.253447
