0.3 101 11
0.645172
1.697754
0.049574
-0.065732
-0.550607
0.362493
-0.517169
-0.263165
0.446376
-0.299511
-0.830665
0.098818
-0.743376
0.721804
-0.960320
1.051425
0.183404
0.229387
-0.424039
-0.906335
-0.073462
-0.103665
-0.129798
-0.412095
0.002174
-0.304330
0.414633
-0.475834
0.725754
0.620784
-0.044533
-0.850066
0.505319
-0.611076
0.619784
-0.211706
0.452925
0.169002
-0.422106
-0.160636
0.446393
0.025721
-0.382870
-0.128374
0.334932
-0.088998
-0.547066
-0.127489
-1.187269
-0.241018
-0.173082
-0.891792
0.080817
0.443597
-0.139946
0.158000
-0.444996
-0.863157
-0.860548
-0.382292
-0.013090
0.662172
-0.431236
0.074159
-0.935649
-0.976715
-0.118975
-0.144519
-0.181841
-0.681652
0.333737
0.120861
-0.496517
0.511529
-0.816644
-0.085801
-0.831095
0.494954
-0.369009
0.002159
0.362367
-0.321643
-0.447631
-1.201718
0.377898
-0.182484
1.092030
0.630503
-0.011191
-0.230955
0.739889
-0.692057
0.321522
-0.860143
0.379764
0.680816
-0.376019
-0.406441
-0.928838
0.704377
-0.145222
0.179442
-0.685176
-0.060736
0.739391
-0.367974
0.289397
0.161898
-0.759217
-0.336911
0.183156
-0.492778
-0.127353
-0.827265
0.352259
0.804209
0.896109
-0.855477
-0.486252
0.730463
-0.632616
0.423592
0.500918
-0.480002
-0.827726
-0.067996
-0.533697
1.021966
0.788110
-0.609232
0.687434
0.112091
0.287079
0.812603
0.798910
-0.746103
-1.007381
0.555778
-0.672930
-0.922620
0.438430
0.442250
0.832645
-0.693241
-0.346811
-0.015031
0.076392
-0.508313
0.044976
0.004723
-0.106080
0.301683
0.947007
-0.997418
0.056206
0.017387
-0.320752
-1.160885
-0.095129
-0.490034
0.471732
0.152757
-0.377497
0.318902
-0.277568
-0.657630
-0.188269
0.325699
-0.081251
-0.057628
0.023477
-0.896591
0.461078
-0.294059
0.385275
0.477904
1.018923
-0.458416
-0.120805
-0.044547
0.435408
0.961661
0.110330
-0.032370
-0.768858
-0.341509
0.379073
-0.221831
0.730254
0.877637
-0.483920
-0.832515
0.066499
-0.272220
-0.652743
-0.384989
0.560761
-0.975008
-0.058105
0.782024
0.186073
0.307222
-0.385215
0.893331
-0.485450
-0.504843
-0.464686
-0.495283
-0.476605
-0.625812
0.442668
-0.717039
0.879304
0.793861
0.282369
-0.359267
0.616348
-0.894914
-0.070825
-0.009668
-0.361569
-0.652571
-1.166310
-0.066204
0.857620
-0.689429
-0.889050
-0.360673
-0.074493
0.191529
-0.243178
-0.108835
-0.287926
-0.001564
0.961262
-0.693983
-0.663936
-0.576254
-0.354951
-0.801082
-0.626976
-0.873149
0.249906
-0.577143
0.848446
0.754936
-0.510057
-0.037573
-0.958623
-0.589284
-0.046334
-0.577220
-0.807039
0.202494
0.289667
-0.662087
-0.090907
0.596968
-0.780605
-0.091956
-0.671310
0.364627
0.699166
-0.593739
-0.372060
0.610280
-0.360113
-0.114943
-0.238317
-0.990009
-0.048898
-0.200313
0.150252
0.654415
-0.794532
0.547655
-0.097272
0.584378
-0.412103
-0.943921
0.231331
-1.026467
0.171369
0.170316
1.015278
0.902846
-0.286966
0.830676
0.135934
0.072471
0.830320
0.321081
-0.725472
0.065476
0.799163
-0.101420
0.272642
-1.086614
-0.549517
-0.715066
-0.708196
0.048870
0.578290
-0.047301
-0.555033
-0.097748
-0.110059
0.658529
0.311961
-0.349558
-0.616716
-0.520496
-0.112607
-0.060633
-0.551074
-0.147795
-0.277974
0.305540
-0.398017
0.061357
-0.693651
-1.201933
-0.308029
0.381085
1.094023
0.977449
0.378191
0.460708
-1.054205
-0.688464
-0.155769
0.954330
0.051751
0.298216
0.329017
-0.785678
0.102061
0.643949
-0.596696
1.292082
0.444237
-0.211503
0.454445
-0.728629
-0.275423
0.653357
0.422661
0.663636
-0.218791
0.070417
-0.349345
0.429757
0.490768
-0.617118
0.265354
-0.683550
-0.690881
0.431851
-0.878346
0.510326
0.020439
0.329906
-0.897916
0.924331
0.053282
-0.678123
0.168493
0.131117
-0.277813
0.525719
0.515515
0.545423
0.257807
-0.766270
-0.476342
-0.650829
-0.499432
0.190692
-0.411498
0.447033
-0.187172
0.208000
-0.296840
0.803831
-0.019598
0.330858
0.442659
-0.592941
-0.100448
0.067245
-0.542270
-0.720688
-0.439063
-1.027221
-0.422632
0.303195
0.384881
-0.517421
-0.450561
-0.706833
0.225916
-0.081076
0.589885
0.879072
-0.042435
0.684692
-0.478741
-0.452276
0.439088
-0.571964
0.679947
-0.493652
-0.649490
-0.069574
1.092597
0.893409
-0.266543
0.296632
-0.588760
0.001400
0.475313
0.397085
-0.462361
0.251912
-0.421372
0.980352
1.146052
0.718958
0.456915
-0.060504
-0.534097
-0.743504
0.741722
1.192209
0.345771
0.355721
0.751876
0.309606
-0.767016
0.317794
1.014761
-0.825376
-0.010854
-0.731617
0.629394
0.902264
-0.055017
0.292858
-0.738047
-0.450619
0.968734
0.143436
-0.078997
0.345503
-0.220585
0.130421
0.318049
-0.045863
0.063994
0.109882
0.458405
-0.239324
-0.056576
-0.182643
-0.668129
-0.378589
-0.709971
0.671722
-0.579555
-0.988095
-0.381327
-0.460520
0.561164
-0.416351
0.125622
0.291342
0.631381
-0.449973
0.635335
-0.479803
-0.371626
-0.208852
1.005000
-0.040217
1.207570
0.635136
0.525887
0.086196
0.752732
-0.365575
0.736810
0.732367
0.405201
-0.632354
0.780815
0.739969
0.298320
0.161476
0.910952
0.542465
0.205448
-0.474148
0.380968
-0.146905
0.324344
-0.747661
0.376652
-0.846972
-0.270142
0.092069
-0.182955
-0.438441
0.577286
-0.273545
1.146969
0.796850
-0.604161
0.051110
-0.723324
0.793749
-0.152481
-0.526474
-0.835647
0.956680
-0.213896
-0.203227
0.820217
-0.109377
0.060848
-0.034325
0.226687
-0.352163
0.037452
-0.855173
-0.358778
0.247047
-0.243767
-0.622023
0.895759
-0.101315
0.048142
0.138478
0.118355
-0.221311
0.366785
0.611181
-0.330557
0.068535
0.791115
0.175001
-0.607019
-0.830340
-0.062318
0.538356
0.378976
-0.310884
0.751521
0.258370
-0.376632
0.639248
0.803787
-0.334105
0.982530
-0.908961
-0.368074
-0.336697
-0.359414
-0.097891
-0.280561
0.610668
-0.505474
-0.958717
-0.855805
0.385659
-0.932235
0.893618
-0.499516
-0.204219
0.096300
-0.764612
-0.031543
-0.854091
0.470533
-0.095410
1.052796
-0.784866
0.648831
0.496043
-0.735010
-0.003611
0.627658
0.115156
-0.110348
0.741284
0.216267
-1.166553
0.302442
0.400696
0.583350
-1.052038
-0.537457
0.541250
0.058424
0.058277
0.929395
0.070043
0.534686
0.218653
-0.732026
0.459351
-0.402304
0.185650
-0.482784
-0.311047
0.078643
-0.904643
-0.473197
-0.362483
0.607066
-0.218484
0.294435
0.358548
0.041511
-0.064897
-0.334419
-0.367829
-0.239489
0.216152
-0.254691
0.530616
-0.163032
-0.363774
-0.106948
-0.767479
-0.390641
0.479384
0.755324
0.744121
-0.223890
0.588174
0.171296
0.907060
-1.323016
-0.689646
0.627920
-0.975234
-0.302104
0.891721
-0.516120
-0.498760
-0.290929
0.325594
-0.065835
-0.089832
0.310235
0.174974
0.778904
0.227719
-0.697255
-0.161380
-0.041168
0.087163
-1.344728
0.174131
-0.401944
0.148620
-1.033529
0.443586
-0.109715
-0.160014
-0.933624
-0.576351
0.740248
0.556590
0.258831
-0.019594
0.788747
-0.426494
-0.058512
-0.054215
0.036773
0.420121
-0.690191
0.962191
-0.297342
0.441341
-0.824848
-0.158128
-0.124598
0.049807
-0.215969
-0.053073
0.996252
-0.301674
0.256798
-0.661802
0.121460
-0.695011
-0.804207
0.559453
-0.181560
0.307916
0.411386
0.370208
0.123974
0.219978
-0.465292
0.149868
-0.395170
0.512201
0.314332
-0.733919
0.611353
0.384104
0.898181
1.188002
-0.123410
0.190413
-0.791973
0.532433
-0.476480
-0.494333
-0.395742
0.651119
-0.730507
-0.942355
-0.596076
1.027036
-0.371243
-0.045106
-0.037350
-0.003783
-0.185994
0.331601
-0.273538
0.770949
-0.291269
-0.255163
-1.093505
0.755239
0.210604
-0.053675
0.729985
0.296700
1.117868
0.034786
-0.322211
0.750669
0.456155
-0.779957
-0.327166
-0.531297
-1.096739
-0.201631
0.696709
0.563600
-0.359004
-0.613145
0.414751
0.269631
-0.573403
-1.264722
-0.814580
0.841674
-0.286013
-0.817752
-0.555133
-0.848058
-1.165515
-0.636676
1.109021
0.711003
0.602688
-0.842076
0.191485
-0.330839
0.089329
0.106012
-0.032626
-0.702893
0.714803
-0.243691
0.361290
-0.528849
-0.682159
-0.218493
0.606522
0.318469
0.016920
-0.049530
-0.117253
0.304732
-0.523372
-0.343644
-0.621187
-0.534652
0.038689
0.354433
0.220319
0.413307
0.690191
0.223757
0.667274
0.607064
-0.372786
0.197979
-0.345581
-0.322681
0.663502
0.929136
-0.137753
0.439245
0.313162
-0.975430
-0.412981
-0.938137
-1.000759
0.084370
-0.689397
0.367009
-0.236926
0.574320
0.480696
0.204646
0.440087
0.675298
0.375248
0.487939
-0.986061
0.228543
-0.633700
-0.437788
-0.005096
0.266075
-0.339986
0.501692
0.009707
-0.014907
0.534122
0.530900
-0.649838
-0.593525
0.461176
-0.352584
0.920499
-0.467396
-0.790821
-0.132601
-0.011022
0.337311
-0.480034
0.633722
-0.327184
-0.182451
0.506788
0.335472
-0.401531
-0.608012
-0.042664
0.224134
0.932968
-0.031319
0.388957
-0.759038
-0.007653
0.101485
-0.518807
-0.864809
-0.369383
0.363076
-0.459096
-0.677694
-0.453202
0.967780
0.608012
-0.028634
0.449527
0.236950
-1.287897
0.103914
-0.400354
0.535517
-0.337566
0.015578
-0.842617
0.407523
-0.337648
-0.236503
0.744408
0.743967
-0.769949
0.124699
0.473848
0.702266
-0.504975
0.170240
0.773256
1.094488
-0.880212
-0.278077
-0.353991
0.754384
-0.348907
-0.063101
0.825039
-0.226474
0.647953
-0.111155
1.026253
0.011089
0.698108
-1.434143
-0.359891
0.351369
-0.895881
-0.300411
0.708892
-1.034357
-1.067624
0.615073
-0.794865
-0.060998
-0.419880
0.104019
0.266990
0.944443
0.057753
-0.367559
0.308177
0.480335
-0.469840
0.377681
0.221126
0.500405
-0.470413
-0.430271
-1.162217
0.513676
-0.528292
0.846963
0.369882
-0.917046
0.857518
1.078374
-0.392302
0.290439
0.271097
0.730097
-0.618171
0.578706
0.010520
0.077048
0.735432
0.141101
-0.534489
0.199240
-0.002778
0.322379
0.236971
-0.503627
0.866128
-0.788421
-0.519465
-0.640543
0.502692
0.938206
0.550251
-0.136105
-0.414425
0.239834
-0.353434
-0.750162
-0.034214
0.420031
1.183380
-0.270055
-0.207800
0.375578
-0.631748
-0.008542
0.190937
-1.204517
0.517870
0.984355
0.818951
-0.765953
-0.732317
0.560796
0.528832
0.454897
0.062410
0.348891
0.815501
-0.199770
0.150293
-0.356233
0.789453
-0.927883
-0.233190
-0.397233
-0.014197
0.097638
-0.047018
-0.871342
-0.907782
-0.475172
-0.389153
-0.089364
0.759442
-0.511197
-0.331244
-0.176224
0.135009
0.196373
0.683174
-0.294294
-0.341682
-0.640780
0.276858
-0.281636
0.422134
-0.171247
0.514539
0.939247
-0.904757
-0.236011
-0.476501
-0.240462
-0.418156
-0.062073
0.604042
-0.694623
-0.374013
0.293488
0.525597
0.708344
0.233847
-0.322129
-0.817650
-0.284292
0.535515
0.141884
0.641350
1.382561
-0.714484
-0.019952
-0.784238
-0.494735
-0.420311
-0.273571
0.910307
0.236055
-0.980506
0.487509
0.004044
0.167160
-0.571622
0.140667
0.899216
0.450758
-0.278589
-0.216924
0.474463
0.254602
0.010422
0.563057
-0.345592
0.088718
-0.012264
1.048599
0.203079
0.369651
0.143616
0.064926
-0.029259
0.657966
0.288865
-0.020393
-0.162032
0.981602
-0.230833
-0.347883
0.340067
-0.653282
-0.389811
0.292244
-0.712218
0.475654
0.597251
-0.252956
0.179836
-0.407648
-0.770471
0.128064
0.378763
0.586910
0.516759
-0.314840
0.774998
0.907484
-1.081854
0.362588
0.011289
0.384768
0.066415
-0.467953
1.086079
-0.358318
0.058124
-0.186857
-0.263292
0.055695
-0.539283
0.000738
-0.960701
0.615049
-0.482898
-0.716335
0.029303
0.045605
0.576927
0.072316
